Language model created by QuickLM on Thu Feb 21 18:27:36 EST 2002
Copyright (c) 1996-2000
Carnegie Mellon University and Alexander I. Rudnicky

This model based on a corpus of 600 sentences and 464 words
The (fixed) discount mass is 0.5

\data\
ngram 1=464
ngram 2=1022
ngram 3=710

\1-grams:
-0.8617 </s> -0.3010
-0.8617 <s> -0.1947
-3.1628 A -0.2364
-3.6399 ACTIVATE -0.2368
-3.3389 ADD -0.2368
-3.6399 AFFIRMATIVE -0.2368
-3.3389 AFTER -0.2368
-3.6399 AFTERNOON -0.2368
-2.9409 AGAIN -0.2368
-3.6399 AIR -0.3009
-3.6399 ALBUM -0.2368
-3.0378 ALL -0.2359
-3.6399 ALTO -0.2368
-2.9409 AM -0.2362
-3.6399 AMOUNT -0.2368
-3.6399 AN -0.2368
-3.6399 AND -0.2368
-3.6399 ANNE -0.2368
-3.6399 ANSELMO -0.2368
-3.6399 ANSWER -0.2368
-3.6399 APPLICATION -0.2368
-3.6399 APRIL -0.2368
-3.1628 ARE -0.2355
-2.9409 ARTIST -0.2355
-3.6399 AS -0.2368
-3.6399 AT -0.2368
-3.6399 AUGUST -0.2368
-3.6399 AUTHENTICATE -0.2368
-3.6399 AVAILABLE -0.2368
-3.6399 AVENUE -0.2368
-3.0378 BACK -0.2362
-3.6399 BAD -0.2368
-3.6399 BASS -0.2368
-3.6399 BATTERY -0.2368
-3.6399 BE -0.2368
-3.3389 BEFORE -0.2368
-3.6399 BELMONT -0.2368
-3.6399 BELVEDERE -0.2368
-3.6399 BERKELEY -0.2368
-3.6399 BILLION -0.2368
-3.6399 BOULEVARD -0.2368
-3.6399 BRIGHT -0.2368
-3.6399 BRIGHTNESS -0.2368
-3.6399 BUT -0.2368
-3.6399 BUTTON -0.2368
-3.6399 BY -0.2368
-3.6399 CABIN -0.2368
-3.6399 CAMERA -0.2368
-3.6399 CAN -0.2368
-3.6399 CAR -0.2368
-3.6399 CEE -0.3009
-3.6399 CENTIMETER -0.2368
-3.6399 CENTURY -0.2368
-3.3389 CHANGE -0.2368
-3.6399 CHANNEL -0.2368
-3.6399 CHECK -0.2368
-3.6399 CIRCLE -0.2368
-3.3389 CITY -0.2368
-3.6399 CLOCK -0.2368
-3.6399 CLOUDY -0.2368
-3.6399 COCKPIT -0.2368
-3.6399 COMPUTER -0.2368
-3.6399 CONDITIONER -0.2368
-3.6399 CONNECT -0.2368
-3.6399 CONNECTED -0.2368
-3.6399 CONTAIN -0.2368
-3.6399 COOL -0.2368
-3.6399 CORTE -0.3009
-3.6399 COUNTY -0.2368
-3.6399 CREATE -0.2368
-3.6399 DAN -0.2368
-3.6399 DARK -0.2368
-3.6399 DARKEN -0.2368
-3.6399 DARKNESS -0.2368
-3.6399 DATA -0.2368
-3.6399 DATE -0.2368
-3.6399 DAVID -0.2368
-3.6399 DAWN -0.2368
-3.3389 DAY -0.2368
-3.6399 DEACTIVATE -0.2368
-3.6399 DECADE -0.2368
-3.6399 DECEMBER -0.2368
-3.6399 DECREASE -0.2368
-3.6399 DEE -0.2368
-3.6399 DELETE -0.2368
-3.6399 DESTROY -0.2368
-3.6399 DIAGNOSTIC -0.3006
-3.6399 DID -0.2368
-3.6399 DIM -0.2368
-3.6399 DISCONNECT -0.2368
-3.6399 DISCONNECTED -0.2368
-3.6399 DISPLAY -0.2368
-3.6399 DISTANCE -0.2368
-3.0378 DO -0.2363
-3.0378 DOWN -0.2299
-3.6399 DRIVER -0.2368
-3.6399 DUSK -0.2368
-3.6399 EACH -0.2368
-3.3389 EARLIER -0.2368
-3.6399 EAST -0.2368
-3.6399 EIGHT -0.2368
-3.6399 EIGHTEEN -0.2368
-3.6399 EIGHTH -0.2368
-3.6399 EIGHTY -0.2368
-3.6399 ELEVEN -0.2368
-3.6399 ELL -0.3009
-2.7368 EMM -0.2359
-3.6399 ENGINE -0.2368
-3.6399 EQUALIZER -0.2368
-3.6399 EVENING -0.2368
-3.6399 EXPRESSWAY -0.2368
-3.6399 EXTERIOR -0.2368
-3.6399 FAIRFAX -0.2368
-3.6399 FEBRUARY -0.2368
-3.6399 FEW -0.2368
-3.6399 FIELD -0.2368
-3.6399 FIFTEEN -0.2368
-3.6399 FIFTH -0.2368
-3.6399 FIFTY -0.2368
-3.6399 FIND -0.2368
-2.6856 FIRST -0.2273
-3.6399 FIVE -0.2368
-3.6399 FOG -0.2368
-3.6399 FOOT -0.2368
-3.6399 FOR -0.2368
-3.6399 FORT -0.3009
-3.6399 FORTNIGHT -0.2368
-3.6399 FORTUNE -0.2368
-3.6399 FORTY -0.2368
-3.0378 FORWARD -0.2362
-3.6399 FOSTER -0.3008
-3.6399 FOUND -0.2368
-3.6399 FOUR -0.2368
-3.6399 FOURTEEN -0.2368
-3.6399 FOURTH -0.2368
-3.6399 FRANCISCO -0.2368
-3.6399 FRIDAY -0.2368
-3.6399 FROM -0.2368
-3.6399 FUEL -0.2368
-3.6399 GALLON -0.2368
-3.6399 GAS -0.2368
-3.6399 GIVE -0.2368
-2.2782 GO -0.2337
-3.6399 GOOD -0.2368
-3.6399 GOODBYE -0.2368
-3.6399 GREG -0.2368
-3.6399 HALT -0.2368
-3.3389 HAVE -0.2368
-3.6399 HEADLIGHT -0.2368
-3.6399 HEAR -0.2368
-3.6399 HEATER -0.2368
-3.6399 HELLO -0.2368
-3.6399 HELP -0.2368
-3.6399 HERE -0.2368
-3.6399 HEY -0.2368
-3.6399 HI -0.2368
-3.6399 HIGH -0.2368
-3.6399 HIGHWAY -0.2368
-3.6399 HOME -0.2368
-3.6399 HOOD -0.2368
-3.6399 HOUR -0.2368
-3.6399 HOW -0.2368
-3.6399 HUNDRED -0.2368
-2.9409 I -0.2358
-3.6399 ICE -0.2368
-3.6399 IDENTIFY -0.2368
-3.6399 IF -0.2368
-3.6399 IGNITION -0.2368
-3.6399 IN -0.2368
-3.6399 INCH -0.2368
-3.6399 INCREASE -0.2368
-3.6399 INSERT -0.2368
-3.6399 INSIDE -0.2368
-3.6399 INTERIOR -0.2368
-3.6399 INTERSECTION -0.2368
-2.2975 IS -0.2262
-3.6399 IT -0.2368
-3.6399 ITEM -0.2368
-3.6399 JACK -0.2368
-3.6399 JAM -0.2368
-3.6399 JANUARY -0.2368
-3.6399 JED -0.2368
-3.6399 JOHN -0.2368
-3.6399 JOKE -0.2368
-3.6399 JOSE -0.2368
-3.6399 JULY -0.2368
-3.6399 JUNE -0.2368
-3.6399 JUST -0.2368
-3.6399 KENT -0.2368
-3.6399 KILOGRAM -0.2368
-3.6399 KILOMETER -0.2368
-3.6399 KNOW -0.2368
-3.3389 LANE -0.2368
-3.6399 LARKSPUR -0.2368
-2.6856 LAST -0.2273
-3.6399 LATE -0.2368
-3.6399 LATER -0.2368
-3.6399 LEFT -0.2368
-3.6399 LESS -0.2368
-3.6399 LEVEL -0.2368
-3.6399 LIGHT -0.2368
-3.6399 LIGHTEN -0.2368
-3.6399 LIGHTS -0.2368
-3.6399 LIKE -0.2368
-3.6399 LIST -0.2368
-3.6399 LISTEN -0.2368
-3.6399 LISTENING -0.2991
-3.6399 LITER -0.2368
-3.6399 LOAD -0.2368
-3.6399 LOCATE -0.2368
-3.6399 LOOP -0.2368
-3.6399 LOUD -0.2368
-3.6399 LOW -0.2368
-3.1628 LOWER -0.2299
-3.6399 LUCY -0.2368
-3.6399 MADERA -0.2368
-3.6399 MANY -0.2368
-3.6399 MARCH -0.2368
-3.6399 MARIN -0.3009
-3.3389 MARK -0.2368
-3.6399 MATTHEW -0.2368
-3.3389 MAY -0.2368
-3.3389 ME -0.2368
-3.6399 MEDIUM -0.2368
-3.6399 MENU -0.2368
-3.6399 METER -0.2368
-3.6399 MICHAEL -0.2368
-3.6399 MID -0.2368
-3.6399 MILE -0.2368
-3.6399 MILEAGE -0.2368
-3.6399 MILLION -0.2368
-3.6399 MINUTE -0.2368
-3.6399 MIRROR -0.2368
-3.0378 MODE -0.2368
-3.6399 MODULE -0.2368
-3.6399 MONDAY -0.2368
-3.6399 MONTH -0.2368
-3.6399 MORE -0.2368
-3.6399 MORNING -0.2368
-3.6399 MOUNTAIN -0.3009
-3.6399 MOVE -0.2368
-3.6399 MUSIC -0.2368
-3.3389 MUTE -0.2368
-3.6399 NAH -0.2368
-2.7948 NAME -0.2355
-3.6399 NAVIGATE -0.2368
-3.6399 NEGATIVE -0.2368
-3.6399 NEW -0.2368
-3.6399 NEWS -0.2368
-2.7368 NEXT -0.2273
-3.3389 NIGHT -0.2368
-3.6399 NINE -0.2368
-3.6399 NINETEEN -0.2368
-3.6399 NINETY -0.2368
-3.6399 NINTH -0.2368
-3.6399 NO -0.2368
-3.6399 NOPE -0.2368
-3.6399 NORTH -0.2368
-3.0378 NOT -0.2340
-3.6399 NOTE -0.2368
-3.6399 NOVATO -0.2368
-3.6399 NOVEMBER -0.2368
-3.6399 NOW -0.2368
-2.8617 NUMBER -0.2355
-3.6399 O -0.3009
-3.6399 OAKLAND -0.2368
-3.6399 OCTOBER -0.2368
-2.5985 OF -0.2325
-2.9409 OFF -0.2299
-3.6399 OKAY -0.2368
-3.6399 OLD -0.2368
-2.6856 ON -0.2299
-3.6399 ONE -0.2368
-3.6399 ONLY -0.2368
-3.6399 OOPS -0.2368
-3.6399 OPTION -0.2368
-3.6399 OR -0.2368
-3.6399 OUTSIDE -0.2368
-3.6399 OVERCAST -0.2368
-3.6399 PAGE -0.2368
-3.6399 PALO -0.3009
-3.6399 PASSENGER -0.2368
-3.6399 PASSWORD -0.2368
-3.6399 PATRICK -0.2368
-3.6399 PAUL -0.2368
-2.9409 PAUSE -0.2203
-2.7368 PEE -0.2994
-3.6399 PERSON -0.2368
-3.6399 PETALUMA -0.2368
-3.6399 PETROL -0.2368
-3.6399 PICTURE -0.2368
-3.6399 PLACE -0.2368
-2.2597 PLAY -0.2252
-3.0378 PLAYED -0.2924
-2.7948 PLAYER -0.2368
-2.9409 PLAYING -0.2337
-2.9409 PLAYLIST -0.2368
-3.6399 PLEASE -0.2368
-3.6399 POINT -0.2368
-3.6399 POSITIVE -0.2368
-3.6399 POUND -0.2368
-3.6399 POWER -0.2368
-3.6399 PRESIDIO -0.2368
-2.7368 PREVIOUS -0.2273
-3.6399 PROFILE -0.2368
-3.6399 PROVIDE -0.2368
-3.6399 QUIET -0.2368
-3.1628 RADIO -0.2368
-3.6399 RAFAEL -0.2368
-3.6399 RAINING -0.2368
-3.1628 RAISE -0.2299
-3.1628 RANDOM -0.2317
-3.3389 RANGE -0.2368
-3.6399 READ -0.2368
-3.6399 REDUCE -0.2368
-3.6399 REDWOOD -0.3008
-3.6399 REMEMBER -0.2368
-3.3389 REMOVE -0.2368
-2.5259 REPEAT -0.2263
-3.6399 REPEATING -0.2368
-3.6399 REPORT -0.2368
-3.6399 RESOURCE -0.2368
-3.6399 RETRIEVE -0.2368
-3.6399 RIGHT -0.2368
-3.6399 ROAD -0.2368
-3.6399 ROBERT -0.2368
-3.6399 ROSS -0.2368
-3.6399 RUN -0.2368
-3.6399 RUPERT -0.2368
-3.6399 SAM -0.2368
-3.6399 SAME -0.2368
-3.0378 SAN -0.3006
-3.6399 SATURDAY -0.2368
-3.6399 SAUSALITO -0.2368
-3.6399 SAVE -0.2368
-3.6399 SCREEN -0.2368
-3.6399 SEARCH -0.2368
-3.6399 SEAT -0.2368
-3.3389 SECOND -0.2368
-3.6399 SEE -0.2368
-3.6399 SEPTEMBER -0.2368
-3.3389 SEQUENTIAL -0.2317
-3.6399 SERVICE -0.2368
-3.3389 SET -0.2368
-3.6399 SETTINGS -0.2368
-3.6399 SEVEN -0.2368
-3.6399 SEVENTEEN -0.2368
-3.6399 SEVENTH -0.2368
-3.6399 SEVENTY -0.2368
-3.6399 SHARON -0.2368
-3.6399 SHIFT -0.2368
-3.6399 SHOW -0.2368
-3.3389 SHUTDOWN -0.2299
-3.6399 SILENCE -0.2368
-3.6399 SIX -0.2368
-3.6399 SIXTEEN -0.2368
-3.6399 SIXTH -0.2368
-3.6399 SIXTY -0.2368
-3.6399 SLEEP -0.2368
-3.6399 SLEET -0.2368
-3.6399 SNOW -0.2368
-3.6399 SO -0.2368
-3.6399 SOME -0.2368
-1.9964 SONG -0.2313
-3.0378 SONGS -0.2368
-3.6399 SOUND -0.2368
-3.6399 SOUTH -0.2368
-3.6399 SPEAK -0.2368
-3.3389 SPEED -0.2368
-3.6399 STANFORD -0.2368
-3.3389 START -0.2299
-3.3389 STARTUP -0.2299
-3.6399 STATE -0.2368
-3.6399 STATUS -0.2368
-3.1628 STEREO -0.2368
-3.6399 STEVE -0.2368
-2.7948 STOP -0.2277
-3.6399 STORE -0.2368
-3.6399 STREET -0.2368
-3.6399 SUBTRACT -0.2368
-3.6399 SUNDAY -0.2368
-3.6399 SUNNY -0.2368
-3.6399 SURE -0.2368
-3.6399 SWITCH -0.2368
-3.6399 SYSTEM -0.2368
-3.6399 TAG -0.2368
-3.6399 TEMPERATURE -0.2368
-2.9409 TEN -0.2359
-3.6399 TENTH -0.2368
-3.3389 THANK -0.2364
-3.6399 THANKS -0.2368
-2.6399 THAT -0.2268
-1.8690 THE -0.2181
-3.6399 THEM -0.2368
-3.6399 THEN -0.2368
-3.6399 THERE -0.2368
-3.6399 THESE -0.2368
-3.6399 THEY -0.2368
-3.6399 THING -0.2368
-3.6399 THIRD -0.2368
-3.6399 THIRTEEN -0.2368
-3.6399 THIRTY -0.2368
-2.2085 THIS -0.2268
-3.6399 THOUSAND -0.2368
-2.7368 THREE -0.2360
-3.6399 THURSDAY -0.2368
-3.6399 TIME -0.2368
-2.3611 TO -0.2160
-3.6399 TODAY -0.2368
-3.6399 TOMORROW -0.2368
-2.0717 TRACK -0.2318
-3.0378 TRACKS -0.2368
-3.6399 TRAFFIC -0.2368
-3.6399 TREBLE -0.2368
-3.6399 TRIP -0.2368
-3.6399 TRUNK -0.2368
-3.6399 TRY -0.2368
-3.6399 TUESDAY -0.2368
-2.6856 TURN -0.2352
-3.6399 TWELVE -0.2368
-3.6399 TWENTY -0.2368
-3.6399 TWO -0.2368
-3.6399 UNAVAILABLE -0.2368
-3.6399 UNIT -0.2368
-3.6399 UNLOAD -0.2368
-3.6399 UNMUTE -0.2368
-3.0378 UP -0.2299
-3.6399 USER -0.2368
-3.6399 VERIFY -0.2368
-3.6399 VERY -0.2368
-3.6399 VIEW -0.2368
-3.6399 VOICE -0.2368
-3.6399 VOLTAGE -0.2368
-2.7948 VOLUME -0.2359
-3.6399 WAS -0.2368
-3.6399 WE -0.2368
-3.6399 WEATHER -0.2368
-3.6399 WEDNESDAY -0.2368
-3.6399 WEEK -0.2368
-3.6399 WEEKDAY -0.2368
-3.6399 WEEKEND -0.2368
-3.6399 WELL -0.2368
-3.6399 WERE -0.2368
-3.6399 WEST -0.2368
-2.4094 WHAT -0.2247
-3.6399 WHEEL -0.2368
-3.6399 WHEN -0.2368
-3.6399 WHERE -0.2368
-2.7948 WHICH -0.2273
-3.6399 WHILE -0.2368
-2.5607 WHO -0.2338
-3.6399 WHY -0.2368
-3.6399 WINDOW -0.2368
-3.3389 WITH -0.2368
-3.6399 WORK -0.2368
-3.6399 WOULD -0.2368
-3.6399 YAH -0.2368
-3.6399 YARD -0.2368
-3.6399 YEAH -0.2368
-3.6399 YEAR -0.2368
-3.6399 YES -0.2368
-3.6399 YESTERDAY -0.2368
-3.1628 YOU -0.2367
-3.6399 ZERO -0.2368

\2-grams:
-3.0792 <s> A -0.1249
-3.0792 <s> ACTIVATE 0.0000
-2.7782 <s> ADD 0.0000
-3.0792 <s> AFFIRMATIVE 0.0000
-2.7782 <s> AFTER 0.0000
-3.0792 <s> AFTERNOON 0.0000
-3.0792 <s> AGAIN 0.0000
-3.0792 <s> AIR 0.0000
-3.0792 <s> ALBUM 0.0000
-3.0792 <s> ALL -0.1761
-3.0792 <s> AM -0.2553
-3.0792 <s> AMOUNT 0.0000
-3.0792 <s> AN 0.0000
-3.0792 <s> AND 0.0000
-3.0792 <s> ANNE 0.0000
-3.0792 <s> ANSWER 0.0000
-3.0792 <s> APPLICATION 0.0000
-3.0792 <s> APRIL 0.0000
-2.6021 <s> ARE 0.0000
-3.0792 <s> ARTIST -0.1461
-3.0792 <s> AS 0.0000
-3.0792 <s> AT 0.0000
-3.0792 <s> AUGUST 0.0000
-3.0792 <s> AUTHENTICATE 0.0000
-3.0792 <s> AVAILABLE 0.0000
-3.0792 <s> AVENUE 0.0000
-3.0792 <s> BACK -0.1761
-3.0792 <s> BAD 0.0000
-3.0792 <s> BASS 0.0000
-3.0792 <s> BATTERY 0.0000
-3.0792 <s> BE 0.0000
-2.7782 <s> BEFORE 0.0000
-3.0792 <s> BELMONT 0.0000
-3.0792 <s> BELVEDERE 0.0000
-3.0792 <s> BERKELEY 0.0000
-3.0792 <s> BILLION 0.0000
-3.0792 <s> BOULEVARD 0.0000
-3.0792 <s> BRIGHT 0.0000
-3.0792 <s> BRIGHTNESS 0.0000
-3.0792 <s> BUT 0.0000
-3.0792 <s> BUTTON 0.0000
-3.0792 <s> BY 0.0000
-3.0792 <s> CABIN 0.0000
-3.0792 <s> CAMERA 0.0000
-3.0792 <s> CAN 0.0000
-3.0792 <s> CAR 0.0000
-3.0792 <s> CENTIMETER 0.0000
-3.0792 <s> CENTURY 0.0000
-2.7782 <s> CHANGE 0.0000
-3.0792 <s> CHANNEL 0.0000
-3.0792 <s> CHECK 0.0000
-3.0792 <s> CIRCLE 0.0000
-3.0792 <s> CLOUDY 0.0000
-3.0792 <s> COCKPIT 0.0000
-3.0792 <s> COMPUTER 0.0000
-3.0792 <s> CONNECT 0.0000
-3.0792 <s> CONNECTED 0.0000
-3.0792 <s> CONTAIN 0.0000
-3.0792 <s> COOL 0.0000
-3.0792 <s> CORTE 0.0000
-3.0792 <s> CREATE 0.0000
-3.0792 <s> DAN 0.0000
-3.0792 <s> DARK 0.0000
-3.0792 <s> DARKEN 0.0000
-3.0792 <s> DARKNESS 0.0000
-3.0792 <s> DATA 0.0000
-3.0792 <s> DATE 0.0000
-3.0792 <s> DAVID 0.0000
-3.0792 <s> DAWN 0.0000
-2.7782 <s> DAY 0.0000
-3.0792 <s> DEACTIVATE 0.0000
-3.0792 <s> DECADE 0.0000
-3.0792 <s> DECEMBER 0.0000
-3.0792 <s> DECREASE 0.0000
-3.0792 <s> DELETE 0.0000
-3.0792 <s> DESTROY 0.0000
-3.0792 <s> DIAGNOSTIC 0.0000
-3.0792 <s> DID 0.0000
-3.0792 <s> DIM 0.0000
-3.0792 <s> DISCONNECT 0.0000
-3.0792 <s> DISCONNECTED 0.0000
-3.0792 <s> DISPLAY 0.0000
-3.0792 <s> DISTANCE 0.0000
-2.4771 <s> DO 0.0000
-2.6021 <s> DOWN 0.0000
-3.0792 <s> DRIVER 0.0000
-3.0792 <s> DUSK 0.0000
-3.0792 <s> EACH 0.0000
-2.7782 <s> EARLIER 0.0000
-3.0792 <s> EAST 0.0000
-3.0792 <s> EIGHT 0.0000
-3.0792 <s> EIGHTEEN 0.0000
-3.0792 <s> EIGHTH 0.0000
-3.0792 <s> EIGHTY 0.0000
-3.0792 <s> ELEVEN 0.0000
-3.0792 <s> ELL 0.0000
-3.0792 <s> EMM -0.0512
-3.0792 <s> ENGINE 0.0000
-3.0792 <s> EQUALIZER 0.0000
-3.0792 <s> EVENING 0.0000
-3.0792 <s> EXPRESSWAY 0.0000
-3.0792 <s> EXTERIOR 0.0000
-3.0792 <s> FAIRFAX 0.0000
-3.0792 <s> FEBRUARY 0.0000
-3.0792 <s> FEW 0.0000
-3.0792 <s> FIELD 0.0000
-3.0792 <s> FIFTEEN 0.0000
-3.0792 <s> FIFTH 0.0000
-3.0792 <s> FIFTY 0.0000
-3.0792 <s> FIND 0.0000
-2.4771 <s> FIRST 0.0000
-3.0792 <s> FIVE 0.0000
-3.0792 <s> FOG 0.0000
-3.0792 <s> FOOT 0.0000
-3.0792 <s> FOR 0.0000
-3.0792 <s> FORT 0.0000
-3.0792 <s> FORTNIGHT 0.0000
-3.0792 <s> FORTUNE 0.0000
-3.0792 <s> FORTY 0.0000
-3.0792 <s> FORWARD -0.1761
-3.0792 <s> FOSTER 0.0000
-3.0792 <s> FOUND 0.0000
-3.0792 <s> FOUR 0.0000
-3.0792 <s> FOURTEEN 0.0000
-3.0792 <s> FOURTH 0.0000
-3.0792 <s> FRIDAY 0.0000
-3.0792 <s> FROM 0.0000
-3.0792 <s> FUEL 0.0000
-3.0792 <s> GALLON 0.0000
-3.0792 <s> GAS 0.0000
-3.0792 <s> GIVE 0.0000
-1.7175 <s> GO 0.0000
-3.0792 <s> GOOD 0.0000
-3.0792 <s> GOODBYE 0.0000
-3.0792 <s> GREG 0.0000
-3.0792 <s> HALT 0.0000
-2.7782 <s> HAVE 0.0000
-3.0792 <s> HEADLIGHT 0.0000
-3.0792 <s> HEAR 0.0000
-3.0792 <s> HEATER 0.0000
-3.0792 <s> HELLO 0.0000
-3.0792 <s> HELP 0.0000
-3.0792 <s> HERE 0.0000
-3.0792 <s> HEY 0.0000
-3.0792 <s> HI 0.0000
-3.0792 <s> HIGH 0.0000
-3.0792 <s> HIGHWAY 0.0000
-3.0792 <s> HOME 0.0000
-3.0792 <s> HOOD 0.0000
-3.0792 <s> HOUR 0.0000
-3.0792 <s> HOW 0.0000
-3.0792 <s> HUNDRED 0.0000
-3.0792 <s> I -0.2553
-3.0792 <s> ICE 0.0000
-3.0792 <s> IDENTIFY 0.0000
-3.0792 <s> IF 0.0000
-3.0792 <s> IGNITION 0.0000
-3.0792 <s> IN 0.0000
-3.0792 <s> INCH 0.0000
-3.0792 <s> INCREASE 0.0000
-3.0792 <s> INSERT 0.0000
-3.0792 <s> INSIDE 0.0000
-3.0792 <s> INTERIOR 0.0000
-3.0792 <s> INTERSECTION 0.0000
-3.0792 <s> IS -0.2808
-3.0792 <s> IT 0.0000
-3.0792 <s> ITEM 0.0000
-3.0792 <s> JACK 0.0000
-3.0792 <s> JAM 0.0000
-3.0792 <s> JANUARY 0.0000
-3.0792 <s> JED 0.0000
-3.0792 <s> JOHN 0.0000
-3.0792 <s> JOKE 0.0000
-3.0792 <s> JULY 0.0000
-3.0792 <s> JUNE 0.0000
-3.0792 <s> JUST 0.0000
-3.0792 <s> KENT 0.0000
-3.0792 <s> KILOGRAM 0.0000
-3.0792 <s> KILOMETER 0.0000
-3.0792 <s> KNOW 0.0000
-2.7782 <s> LANE 0.0000
-3.0792 <s> LARKSPUR 0.0000
-2.4771 <s> LAST 0.0000
-3.0792 <s> LATE 0.0000
-3.0792 <s> LATER 0.0000
-3.0792 <s> LEFT 0.0000
-3.0792 <s> LESS 0.0000
-3.0792 <s> LEVEL 0.0000
-3.0792 <s> LIGHT 0.0000
-3.0792 <s> LIGHTEN 0.0000
-3.0792 <s> LIGHTS 0.0000
-3.0792 <s> LIKE 0.0000
-3.0792 <s> LIST 0.0000
-3.0792 <s> LISTEN 0.0000
-3.0792 <s> LITER 0.0000
-3.0792 <s> LOAD 0.0000
-3.0792 <s> LOCATE 0.0000
-3.0792 <s> LOOP 0.0000
-3.0792 <s> LOUD 0.0000
-3.0792 <s> LOW 0.0000
-2.6021 <s> LOWER 0.0000
-3.0792 <s> LUCY 0.0000
-3.0792 <s> MANY 0.0000
-3.0792 <s> MARCH 0.0000
-3.0792 <s> MARIN 0.0000
-2.7782 <s> MARK 0.0000
-3.0792 <s> MATTHEW 0.0000
-2.7782 <s> MAY 0.0000
-3.0792 <s> ME 0.0000
-3.0792 <s> MEDIUM 0.0000
-3.0792 <s> MENU 0.0000
-3.0792 <s> METER 0.0000
-3.0792 <s> MICHAEL 0.0000
-3.0792 <s> MID 0.0000
-3.0792 <s> MILE 0.0000
-3.0792 <s> MILEAGE 0.0000
-3.0792 <s> MILLION 0.0000
-3.0792 <s> MINUTE 0.0000
-3.0792 <s> MIRROR 0.0000
-3.0792 <s> MODE 0.0000
-3.0792 <s> MODULE 0.0000
-3.0792 <s> MONDAY 0.0000
-3.0792 <s> MONTH 0.0000
-3.0792 <s> MORE 0.0000
-3.0792 <s> MORNING 0.0000
-3.0792 <s> MOUNTAIN 0.0000
-3.0792 <s> MOVE 0.0000
-3.0792 <s> MUSIC 0.0000
-2.7782 <s> MUTE 0.0000
-3.0792 <s> NAH 0.0000
-3.0792 <s> NAME -0.2688
-3.0792 <s> NAVIGATE 0.0000
-3.0792 <s> NEGATIVE 0.0000
-3.0792 <s> NEW 0.0000
-3.0792 <s> NEWS 0.0000
-2.6021 <s> NEXT 0.0000
-2.7782 <s> NIGHT 0.0000
-3.0792 <s> NINE 0.0000
-3.0792 <s> NINETEEN 0.0000
-3.0792 <s> NINETY 0.0000
-3.0792 <s> NINTH 0.0000
-3.0792 <s> NO 0.0000
-3.0792 <s> NOPE 0.0000
-3.0792 <s> NORTH 0.0000
-3.0792 <s> NOT -0.2430
-3.0792 <s> NOTE 0.0000
-3.0792 <s> NOVATO 0.0000
-3.0792 <s> NOVEMBER 0.0000
-3.0792 <s> NOW 0.0000
-3.0792 <s> NUMBER -0.1249
-3.0792 <s> O 0.0000
-3.0792 <s> OAKLAND 0.0000
-3.0792 <s> OCTOBER 0.0000
-3.0792 <s> OF -0.2808
-3.0792 <s> OFF -0.2041
-3.0792 <s> OKAY 0.0000
-3.0792 <s> OLD 0.0000
-3.0792 <s> ON -0.1249
-3.0792 <s> ONE 0.0000
-3.0792 <s> ONLY 0.0000
-3.0792 <s> OOPS 0.0000
-3.0792 <s> OPTION 0.0000
-3.0792 <s> OR 0.0000
-3.0792 <s> OUTSIDE 0.0000
-3.0792 <s> OVERCAST 0.0000
-3.0792 <s> PAGE 0.0000
-3.0792 <s> PALO 0.0000
-3.0792 <s> PASSENGER 0.0000
-3.0792 <s> PASSWORD 0.0000
-3.0792 <s> PATRICK 0.0000
-3.0792 <s> PAUL 0.0000
-2.3802 <s> PAUSE 0.0000
-3.0792 <s> PERSON 0.0000
-3.0792 <s> PETALUMA 0.0000
-3.0792 <s> PETROL 0.0000
-3.0792 <s> PICTURE 0.0000
-3.0792 <s> PLACE 0.0000
-1.7570 <s> PLAY 0.0000
-3.0792 <s> PLAYER 0.0000
-3.0792 <s> PLAYLIST 0.0000
-3.0792 <s> PLEASE 0.0000
-3.0792 <s> POSITIVE 0.0000
-3.0792 <s> POUND 0.0000
-3.0792 <s> POWER 0.0000
-3.0792 <s> PRESIDIO 0.0000
-2.6021 <s> PREVIOUS 0.0000
-3.0792 <s> PROFILE 0.0000
-3.0792 <s> PROVIDE 0.0000
-3.0792 <s> QUIET 0.0000
-3.0792 <s> RADIO 0.0000
-3.0792 <s> RAINING 0.0000
-2.6021 <s> RAISE 0.0000
-2.7782 <s> RANDOM 0.0000
-2.7782 <s> RANGE 0.0000
-3.0792 <s> READ 0.0000
-3.0792 <s> REDUCE 0.0000
-3.0792 <s> REDWOOD 0.0000
-3.0792 <s> REMEMBER 0.0000
-2.7782 <s> REMOVE 0.0000
-2.0000 <s> REPEAT 0.0000
-3.0792 <s> REPORT 0.0000
-3.0792 <s> RESOURCE 0.0000
-3.0792 <s> RETRIEVE 0.0000
-3.0792 <s> RIGHT 0.0000
-3.0792 <s> ROAD 0.0000
-3.0792 <s> ROBERT 0.0000
-3.0792 <s> ROSS 0.0000
-3.0792 <s> RUN 0.0000
-3.0792 <s> RUPERT 0.0000
-3.0792 <s> SAM 0.0000
-3.0792 <s> SAME 0.0000
-2.4771 <s> SAN 0.0000
-3.0792 <s> SATURDAY 0.0000
-3.0792 <s> SAUSALITO 0.0000
-3.0792 <s> SAVE 0.0000
-3.0792 <s> SCREEN 0.0000
-3.0792 <s> SEARCH 0.0000
-3.0792 <s> SEAT 0.0000
-2.7782 <s> SECOND 0.0000
-3.0792 <s> SEE 0.0000
-3.0792 <s> SEPTEMBER 0.0000
-2.7782 <s> SEQUENTIAL 0.0000
-3.0792 <s> SERVICE 0.0000
-2.7782 <s> SET 0.0000
-3.0792 <s> SETTINGS 0.0000
-3.0792 <s> SEVEN 0.0000
-3.0792 <s> SEVENTEEN 0.0000
-3.0792 <s> SEVENTH 0.0000
-3.0792 <s> SEVENTY 0.0000
-3.0792 <s> SHARON 0.0000
-3.0792 <s> SHIFT 0.0000
-3.0792 <s> SHOW 0.0000
-2.7782 <s> SHUTDOWN 0.0000
-3.0792 <s> SILENCE 0.0000
-3.0792 <s> SIX 0.0000
-3.0792 <s> SIXTEEN 0.0000
-3.0792 <s> SIXTH 0.0000
-3.0792 <s> SIXTY 0.0000
-3.0792 <s> SLEEP 0.0000
-3.0792 <s> SLEET 0.0000
-3.0792 <s> SNOW 0.0000
-3.0792 <s> SO 0.0000
-3.0792 <s> SOME 0.0000
-3.0792 <s> SONG -0.0889
-3.0792 <s> SONGS 0.0000
-3.0792 <s> SOUND 0.0000
-3.0792 <s> SOUTH 0.0000
-3.0792 <s> SPEAK 0.0000
-2.7782 <s> SPEED 0.0000
-3.0792 <s> STANFORD 0.0000
-2.7782 <s> START 0.0000
-2.7782 <s> STARTUP 0.0000
-3.0792 <s> STATE 0.0000
-3.0792 <s> STATUS 0.0000
-3.0792 <s> STEREO 0.0000
-3.0792 <s> STEVE 0.0000
-2.2341 <s> STOP -0.0000
-3.0792 <s> STORE 0.0000
-3.0792 <s> STREET 0.0000
-3.0792 <s> SUBTRACT 0.0000
-3.0792 <s> SUNDAY 0.0000
-3.0792 <s> SUNNY 0.0000
-3.0792 <s> SURE 0.0000
-3.0792 <s> SWITCH 0.0000
-3.0792 <s> SYSTEM 0.0000
-3.0792 <s> TAG 0.0000
-3.0792 <s> TEMPERATURE 0.0000
-3.0792 <s> TEN -0.2553
-3.0792 <s> TENTH 0.0000
-2.7782 <s> THANK 0.0000
-3.0792 <s> THANKS 0.0000
-3.0792 <s> THAT -0.2304
-3.0792 <s> THE -0.2666
-3.0792 <s> THEM 0.0000
-3.0792 <s> THEN 0.0000
-3.0792 <s> THERE 0.0000
-3.0792 <s> THESE 0.0000
-3.0792 <s> THEY 0.0000
-3.0792 <s> THING 0.0000
-3.0792 <s> THIRD 0.0000
-3.0792 <s> THIRTEEN 0.0000
-3.0792 <s> THIRTY 0.0000
-3.0792 <s> THIS -0.2407
-3.0792 <s> THOUSAND 0.0000
-3.0792 <s> THREE -0.2430
-3.0792 <s> THURSDAY 0.0000
-3.0792 <s> TIME 0.0000
-2.7782 <s> TO -0.2653
-3.0792 <s> TODAY 0.0000
-3.0792 <s> TOMORROW 0.0000
-3.0792 <s> TRACK -0.0850
-3.0792 <s> TRACKS 0.0000
-3.0792 <s> TRAFFIC 0.0000
-3.0792 <s> TREBLE 0.0000
-3.0792 <s> TRIP 0.0000
-3.0792 <s> TRUNK 0.0000
-3.0792 <s> TRY 0.0000
-3.0792 <s> TUESDAY 0.0000
-2.1249 <s> TURN 0.0000
-3.0792 <s> TWELVE 0.0000
-3.0792 <s> TWENTY 0.0000
-3.0792 <s> TWO 0.0000
-3.0792 <s> UNAVAILABLE 0.0000
-3.0792 <s> UNIT 0.0000
-3.0792 <s> UNLOAD 0.0000
-3.0792 <s> UNMUTE 0.0000
-2.6021 <s> UP 0.0000
-3.0792 <s> USER 0.0000
-3.0792 <s> VERIFY 0.0000
-3.0792 <s> VERY 0.0000
-3.0792 <s> VOICE 0.0000
-3.0792 <s> VOLTAGE 0.0000
-2.6021 <s> VOLUME 0.0000
-3.0792 <s> WAS 0.0000
-3.0792 <s> WE 0.0000
-3.0792 <s> WEATHER 0.0000
-3.0792 <s> WEDNESDAY 0.0000
-3.0792 <s> WEEK 0.0000
-3.0792 <s> WEEKDAY 0.0000
-3.0792 <s> WEEKEND 0.0000
-3.0792 <s> WELL 0.0000
-3.0792 <s> WERE 0.0000
-3.0792 <s> WEST 0.0000
-1.8487 <s> WHAT 0.0000
-3.0792 <s> WHEEL 0.0000
-3.0792 <s> WHEN 0.0000
-3.0792 <s> WHERE 0.0000
-2.2341 <s> WHICH 0.0000
-3.0792 <s> WHILE 0.0000
-2.0000 <s> WHO 0.0000
-3.0792 <s> WHY 0.0000
-3.0792 <s> WINDOW 0.0000
-2.7782 <s> WITH 0.0000
-3.0792 <s> WORK 0.0000
-3.0792 <s> WOULD 0.0000
-3.0792 <s> YAH 0.0000
-3.0792 <s> YARD 0.0000
-3.0792 <s> YEAH 0.0000
-3.0792 <s> YEAR 0.0000
-3.0792 <s> YES 0.0000
-3.0792 <s> YESTERDAY 0.0000
-3.0792 <s> YOU -0.1249
-3.0792 <s> ZERO 0.0000
-0.4771 A </s> -0.3010
-0.7782 A RANDOM -0.1249
-0.3010 ACTIVATE </s> -0.3010
-0.3010 ADD </s> -0.3010
-0.3010 AFFIRMATIVE </s> -0.3010
-0.3010 AFTER </s> -0.3010
-0.3010 AFTERNOON </s> -0.3010
-0.3010 AGAIN </s> -0.3010
-0.3010 AIR CONDITIONER 0.0000
-0.3010 ALBUM </s> -0.3010
-0.6021 ALL </s> -0.3010
-0.9031 ALL SONGS 0.0000
-0.9031 ALL TRACKS 0.0000
-0.3010 ALTO </s> -0.3010
-1.0000 AM </s> -0.3010
-0.3979 AM I -0.0792
-0.3010 AMOUNT </s> -0.3010
-0.3010 AN </s> -0.3010
-0.3010 AND </s> -0.3010
-0.3010 ANNE </s> -0.3010
-0.3010 ANSELMO </s> -0.3010
-0.3010 ANSWER </s> -0.3010
-0.3010 APPLICATION </s> -0.3010
-0.3010 APRIL </s> -0.3010
-0.7782 ARE </s> -0.3010
-0.7782 ARE PEE -0.2730
-0.7782 ARE YOU -0.2218
-0.5229 ARTIST </s> -0.3010
-0.6990 ARTIST OF -0.1347
-0.3010 AS </s> -0.3010
-0.3010 AT </s> -0.3010
-0.3010 AUGUST </s> -0.3010
-0.3010 AUTHENTICATE </s> -0.3010
-0.3010 AVAILABLE </s> -0.3010
-0.3010 AVENUE </s> -0.3010
-0.6021 BACK </s> -0.3010
-0.6021 BACK TEN -0.0792
-0.3010 BAD </s> -0.3010
-0.3010 BASS </s> -0.3010
-0.3010 BATTERY </s> -0.3010
-0.3010 BE </s> -0.3010
-0.3010 BEFORE </s> -0.3010
-0.3010 BELMONT </s> -0.3010
-0.3010 BELVEDERE </s> -0.3010
-0.3010 BERKELEY </s> -0.3010
-0.3010 BILLION </s> -0.3010
-0.3010 BOULEVARD </s> -0.3010
-0.3010 BRIGHT </s> -0.3010
-0.3010 BRIGHTNESS </s> -0.3010
-0.3010 BUT </s> -0.3010
-0.3010 BUTTON </s> -0.3010
-0.3010 BY </s> -0.3010
-0.3010 CABIN </s> -0.3010
-0.3010 CAMERA </s> -0.3010
-0.3010 CAN </s> -0.3010
-0.3010 CAR </s> -0.3010
-0.3010 CEE DEE 0.0000
-0.3010 CENTIMETER </s> -0.3010
-0.3010 CENTURY </s> -0.3010
-0.3010 CHANGE </s> -0.3010
-0.3010 CHANNEL </s> -0.3010
-0.3010 CHECK </s> -0.3010
-0.3010 CIRCLE </s> -0.3010
-0.3010 CITY </s> -0.3010
-0.3010 CLOCK </s> -0.3010
-0.3010 CLOUDY </s> -0.3010
-0.3010 COCKPIT </s> -0.3010
-0.3010 COMPUTER </s> -0.3010
-0.3010 CONDITIONER </s> -0.3010
-0.3010 CONNECT </s> -0.3010
-0.3010 CONNECTED </s> -0.3010
-0.3010 CONTAIN </s> -0.3010
-0.3010 COOL </s> -0.3010
-0.3010 CORTE MADERA 0.0000
-0.3010 COUNTY </s> -0.3010
-0.3010 CREATE </s> -0.3010
-0.3010 DAN </s> -0.3010
-0.3010 DARK </s> -0.3010
-0.3010 DARKEN </s> -0.3010
-0.3010 DARKNESS </s> -0.3010
-0.3010 DATA </s> -0.3010
-0.3010 DATE </s> -0.3010
-0.3010 DAVID </s> -0.3010
-0.3010 DAWN </s> -0.3010
-0.3010 DAY </s> -0.3010
-0.3010 DEACTIVATE </s> -0.3010
-0.3010 DECADE </s> -0.3010
-0.3010 DECEMBER </s> -0.3010
-0.3010 DECREASE </s> -0.3010
-0.3010 DEE </s> -0.3010
-0.3010 DELETE </s> -0.3010
-0.3010 DESTROY </s> -0.3010
-0.3010 DIAGNOSTIC MODE 0.0000
-0.3010 DID </s> -0.3010
-0.3010 DIM </s> -0.3010
-0.3010 DISCONNECT </s> -0.3010
-0.3010 DISCONNECTED </s> -0.3010
-0.3010 DISPLAY </s> -0.3010
-0.3010 DISTANCE </s> -0.3010
-0.9031 DO </s> -0.3010
-0.4260 DO NOT -0.0969
-0.6021 DOWN </s> -0.3010
-0.6021 DOWN THE -0.2503
-0.3010 DRIVER </s> -0.3010
-0.3010 DUSK </s> -0.3010
-0.3010 EACH </s> -0.3010
-0.3010 EARLIER </s> -0.3010
-0.3010 EAST </s> -0.3010
-0.3010 EIGHT </s> -0.3010
-0.3010 EIGHTEEN </s> -0.3010
-0.3010 EIGHTH </s> -0.3010
-0.3010 EIGHTY </s> -0.3010
-0.3010 ELEVEN </s> -0.3010
-0.3010 ELL CEE 0.0000
-1.2041 EMM </s> -0.3010
-0.3590 EMM PEE -0.0512
-0.3010 ENGINE </s> -0.3010
-0.3010 EQUALIZER </s> -0.3010
-0.3010 EVENING </s> -0.3010
-0.3010 EXPRESSWAY </s> -0.3010
-0.3010 EXTERIOR </s> -0.3010
-0.3010 FAIRFAX </s> -0.3010
-0.3010 FEBRUARY </s> -0.3010
-0.3010 FEW </s> -0.3010
-0.3010 FIELD </s> -0.3010
-0.3010 FIFTEEN </s> -0.3010
-0.3010 FIFTH </s> -0.3010
-0.3010 FIFTY </s> -0.3010
-0.3010 FIND </s> -0.3010
-0.9542 FIRST </s> -0.3010
-0.6532 FIRST SONG -0.0889
-0.7782 FIRST TRACK -0.0850
-0.3010 FIVE </s> -0.3010
-0.3010 FOG </s> -0.3010
-0.3010 FOOT </s> -0.3010
-0.3010 FOR </s> -0.3010
-0.3010 FORT POINT 0.0000
-0.3010 FORTNIGHT </s> -0.3010
-0.3010 FORTUNE </s> -0.3010
-0.3010 FORTY </s> -0.3010
-0.6021 FORWARD </s> -0.3010
-0.6021 FORWARD TEN -0.0792
-0.3010 FOSTER CITY 0.0000
-0.3010 FOUND </s> -0.3010
-0.3010 FOUR </s> -0.3010
-0.3010 FOURTEEN </s> -0.3010
-0.3010 FOURTH </s> -0.3010
-0.3010 FRANCISCO </s> -0.3010
-0.3010 FRIDAY </s> -0.3010
-0.3010 FROM </s> -0.3010
-0.3010 FUEL </s> -0.3010
-0.3010 GALLON </s> -0.3010
-0.3010 GAS </s> -0.3010
-0.3010 GIVE </s> -0.3010
-1.6628 GO </s> -0.3010
-1.1856 GO BACK 0.0000
-1.1856 GO FORWARD 0.0000
-0.4586 GO TO -0.0223
-0.3010 GOOD </s> -0.3010
-0.3010 GOODBYE </s> -0.3010
-0.3010 GREG </s> -0.3010
-0.3010 HALT </s> -0.3010
-0.3010 HAVE </s> -0.3010
-0.3010 HEADLIGHT </s> -0.3010
-0.3010 HEAR </s> -0.3010
-0.3010 HEATER </s> -0.3010
-0.3010 HELLO </s> -0.3010
-0.3010 HELP </s> -0.3010
-0.3010 HERE </s> -0.3010
-0.3010 HEY </s> -0.3010
-0.3010 HI </s> -0.3010
-0.3010 HIGH </s> -0.3010
-0.3010 HIGHWAY </s> -0.3010
-0.3010 HOME </s> -0.3010
-0.3010 HOOD </s> -0.3010
-0.3010 HOUR </s> -0.3010
-0.3010 HOW </s> -0.3010
-0.3010 HUNDRED </s> -0.3010
-1.0000 I </s> -0.3010
-0.3979 I ON -0.1249
-0.3010 ICE </s> -0.3010
-0.3010 IDENTIFY </s> -0.3010
-0.3010 IF </s> -0.3010
-0.3010 IGNITION </s> -0.3010
-0.3010 IN </s> -0.3010
-0.3010 INCH </s> -0.3010
-0.3010 INCREASE </s> -0.3010
-0.3010 INSERT </s> -0.3010
-0.3010 INSIDE </s> -0.3010
-0.3010 INTERIOR </s> -0.3010
-0.3010 INTERSECTION </s> -0.3010
-1.3424 IS </s> -0.3010
-1.3424 IS PLAYING -0.0792
-0.4973 IS THE -0.1834
-1.0414 IS THIS -0.2407
-0.3010 IT </s> -0.3010
-0.3010 ITEM </s> -0.3010
-0.3010 JACK </s> -0.3010
-0.3010 JAM </s> -0.3010
-0.3010 JANUARY </s> -0.3010
-0.3010 JED </s> -0.3010
-0.3010 JOHN </s> -0.3010
-0.3010 JOKE </s> -0.3010
-0.3010 JOSE </s> -0.3010
-0.3010 JULY </s> -0.3010
-0.3010 JUNE </s> -0.3010
-0.3010 JUST </s> -0.3010
-0.3010 KENT </s> -0.3010
-0.3010 KILOGRAM </s> -0.3010
-0.3010 KILOMETER </s> -0.3010
-0.3010 KNOW </s> -0.3010
-0.3010 LANE </s> -0.3010
-0.3010 LARKSPUR </s> -0.3010
-0.9542 LAST </s> -0.3010
-0.6532 LAST SONG -0.0889
-0.7782 LAST TRACK -0.0850
-0.3010 LATE </s> -0.3010
-0.3010 LATER </s> -0.3010
-0.3010 LEFT </s> -0.3010
-0.3010 LESS </s> -0.3010
-0.3010 LEVEL </s> -0.3010
-0.3010 LIGHT </s> -0.3010
-0.3010 LIGHTEN </s> -0.3010
-0.3010 LIGHTS </s> -0.3010
-0.3010 LIKE </s> -0.3010
-0.3010 LIST </s> -0.3010
-0.3010 LISTEN </s> -0.3010
-0.3010 LISTENING TO -0.2894
-0.3010 LITER </s> -0.3010
-0.3010 LOAD </s> -0.3010
-0.3010 LOCATE </s> -0.3010
-0.3010 LOOP </s> -0.3010
-0.3010 LOUD </s> -0.3010
-0.3010 LOW </s> -0.3010
-0.7782 LOWER </s> -0.3010
-0.4771 LOWER THE -0.2503
-0.3010 LUCY </s> -0.3010
-0.3010 MADERA </s> -0.3010
-0.3010 MANY </s> -0.3010
-0.3010 MARCH </s> -0.3010
-0.3010 MARIN COUNTY 0.0000
-0.3010 MARK </s> -0.3010
-0.3010 MATTHEW </s> -0.3010
-0.3010 MAY </s> -0.3010
-0.3010 ME </s> -0.3010
-0.3010 MEDIUM </s> -0.3010
-0.3010 MENU </s> -0.3010
-0.3010 METER </s> -0.3010
-0.3010 MICHAEL </s> -0.3010
-0.3010 MID </s> -0.3010
-0.3010 MILE </s> -0.3010
-0.3010 MILEAGE </s> -0.3010
-0.3010 MILLION </s> -0.3010
-0.3010 MINUTE </s> -0.3010
-0.3010 MIRROR </s> -0.3010
-0.3010 MODE </s> -0.3010
-0.3010 MODULE </s> -0.3010
-0.3010 MONDAY </s> -0.3010
-0.3010 MONTH </s> -0.3010
-0.3010 MORE </s> -0.3010
-0.3010 MORNING </s> -0.3010
-0.3010 MOUNTAIN VIEW 0.0000
-0.3010 MOVE </s> -0.3010
-0.3010 MUSIC </s> -0.3010
-0.3010 MUTE </s> -0.3010
-0.3010 NAH </s> -0.3010
-1.1461 NAME </s> -0.3010
-0.3680 NAME OF -0.0378
-0.3010 NAVIGATE </s> -0.3010
-0.3010 NEGATIVE </s> -0.3010
-0.3010 NEW </s> -0.3010
-0.3010 NEWS </s> -0.3010
-1.2041 NEXT </s> -0.3010
-0.6021 NEXT SONG -0.0889
-0.7270 NEXT TRACK -0.0850
-0.3010 NIGHT </s> -0.3010
-0.3010 NINE </s> -0.3010
-0.3010 NINETEEN </s> -0.3010
-0.3010 NINETY </s> -0.3010
-0.3010 NINTH </s> -0.3010
-0.3010 NO </s> -0.3010
-0.3010 NOPE </s> -0.3010
-0.3010 NORTH </s> -0.3010
-0.9031 NOT </s> -0.3010
-0.4260 NOT PLAY -0.2326
-0.3010 NOTE </s> -0.3010
-0.3010 NOVATO </s> -0.3010
-0.3010 NOVEMBER </s> -0.3010
-0.3010 NOW </s> -0.3010
-0.4771 NUMBER </s> -0.3010
-0.7782 NUMBER OF -0.1347
-0.3010 O CLOCK 0.0000
-0.3010 OAKLAND </s> -0.3010
-0.3010 OCTOBER </s> -0.3010
-1.3424 OF </s> -0.3010
-0.8653 OF THAT -0.1139
-0.4973 OF THIS -0.1001
-0.6990 OFF </s> -0.3010
-0.5229 OFF THE -0.2626
-0.3010 OKAY </s> -0.3010
-0.3010 OLD </s> -0.3010
-0.4771 ON </s> -0.3010
-0.7782 ON THE -0.2626
-0.3010 ONE </s> -0.3010
-0.3010 ONLY </s> -0.3010
-0.3010 OOPS </s> -0.3010
-0.3010 OPTION </s> -0.3010
-0.3010 OR </s> -0.3010
-0.3010 OUTSIDE </s> -0.3010
-0.3010 OVERCAST </s> -0.3010
-0.3010 PAGE </s> -0.3010
-0.3010 PALO ALTO 0.0000
-0.3010 PASSENGER </s> -0.3010
-0.3010 PASSWORD </s> -0.3010
-0.3010 PATRICK </s> -0.3010
-0.3010 PAUL </s> -0.3010
-1.0000 PAUSE </s> -0.3010
-1.0000 PAUSE SONG -0.0889
-0.6990 PAUSE THE -0.2705
-1.0000 PAUSE TRACK -0.0850
-1.2041 PEE EMM -0.2730
-0.3590 PEE THREE 0.0000
-0.3010 PERSON </s> -0.3010
-0.3010 PETALUMA </s> -0.3010
-0.3010 PETROL </s> -0.3010
-0.3010 PICTURE </s> -0.3010
-0.3010 PLACE </s> -0.3010
-1.3802 PLAY </s> -0.3010
-1.3802 PLAY A 0.0000
-0.9031 PLAY THAT -0.0414
-0.7270 PLAY THE -0.1976
-0.9823 PLAY THIS -0.0310
-0.6021 PLAYED THE -0.2705
-0.6021 PLAYED THIS -0.1249
-0.3010 PLAYER </s> -0.3010
-1.0000 PLAYING </s> -0.3010
-0.3979 PLAYING THIS -0.1249
-0.3010 PLAYLIST </s> -0.3010
-0.3010 PLEASE </s> -0.3010
-0.3010 POINT </s> -0.3010
-0.3010 POSITIVE </s> -0.3010
-0.3010 POUND </s> -0.3010
-0.3010 POWER </s> -0.3010
-0.3010 PRESIDIO </s> -0.3010
-1.2041 PREVIOUS </s> -0.3010
-0.6021 PREVIOUS SONG -0.0889
-0.7270 PREVIOUS TRACK -0.0850
-0.3010 PROFILE </s> -0.3010
-0.3010 PROVIDE </s> -0.3010
-0.3010 QUIET </s> -0.3010
-0.3010 RADIO </s> -0.3010
-0.3010 RAFAEL </s> -0.3010
-0.3010 RAINING </s> -0.3010
-0.7782 RAISE </s> -0.3010
-0.4771 RAISE THE -0.2503
-0.7782 RANDOM </s> -0.3010
-0.4771 RANDOM SONG -0.0726
-0.3010 RANGE </s> -0.3010
-0.3010 READ </s> -0.3010
-0.3010 REDUCE </s> -0.3010
-0.3010 REDWOOD CITY 0.0000
-0.3010 REMEMBER </s> -0.3010
-0.3010 REMOVE </s> -0.3010
-1.1139 REPEAT </s> -0.3010
-0.9379 REPEAT ALL 0.0000
-0.8129 REPEAT THE -0.2291
-0.8129 REPEAT THIS 0.0000
-0.3010 REPEATING </s> -0.3010
-0.3010 REPORT </s> -0.3010
-0.3010 RESOURCE </s> -0.3010
-0.3010 RETRIEVE </s> -0.3010
-0.3010 RIGHT </s> -0.3010
-0.3010 ROAD </s> -0.3010
-0.3010 ROBERT </s> -0.3010
-0.3010 ROSS </s> -0.3010
-0.3010 RUN </s> -0.3010
-0.3010 RUPERT </s> -0.3010
-0.3010 SAM </s> -0.3010
-0.3010 SAME </s> -0.3010
-0.9031 SAN ANSELMO 0.0000
-0.9031 SAN FRANCISCO 0.0000
-0.9031 SAN JOSE 0.0000
-0.9031 SAN RAFAEL 0.0000
-0.3010 SATURDAY </s> -0.3010
-0.3010 SAUSALITO </s> -0.3010
-0.3010 SAVE </s> -0.3010
-0.3010 SCREEN </s> -0.3010
-0.3010 SEARCH </s> -0.3010
-0.3010 SEAT </s> -0.3010
-0.3010 SECOND </s> -0.3010
-0.3010 SEE </s> -0.3010
-0.3010 SEPTEMBER </s> -0.3010
-0.6021 SEQUENTIAL </s> -0.3010
-0.6021 SEQUENTIAL SONG -0.2910
-0.3010 SERVICE </s> -0.3010
-0.3010 SET </s> -0.3010
-0.3010 SETTINGS </s> -0.3010
-0.3010 SEVEN </s> -0.3010
-0.3010 SEVENTEEN </s> -0.3010
-0.3010 SEVENTH </s> -0.3010
-0.3010 SEVENTY </s> -0.3010
-0.3010 SHARON </s> -0.3010
-0.3010 SHIFT </s> -0.3010
-0.3010 SHOW </s> -0.3010
-0.6021 SHUTDOWN </s> -0.3010
-0.6021 SHUTDOWN THE -0.2784
-0.3010 SILENCE </s> -0.3010
-0.3010 SIX </s> -0.3010
-0.3010 SIXTEEN </s> -0.3010
-0.3010 SIXTH </s> -0.3010
-0.3010 SIXTY </s> -0.3010
-0.3010 SLEEP </s> -0.3010
-0.3010 SLEET </s> -0.3010
-0.3010 SNOW </s> -0.3010
-0.3010 SO </s> -0.3010
-0.3010 SOME </s> -0.3010
-0.4130 SONG </s> -0.3010
-1.6435 SONG AGAIN 0.0000
-1.6435 SONG AM -0.0792
-1.9445 SONG ARTIST -0.1461
-1.6435 SONG IS -0.2596
-1.6435 SONG MODE 0.0000
-1.9445 SONG NUMBER -0.1249
-0.3010 SONGS </s> -0.3010
-0.3010 SOUND </s> -0.3010
-0.3010 SOUTH </s> -0.3010
-0.3010 SPEAK </s> -0.3010
-0.3010 SPEED </s> -0.3010
-0.3010 STANFORD </s> -0.3010
-0.6021 START </s> -0.3010
-0.6021 START THE -0.2784
-0.6021 STARTUP </s> -0.3010
-0.6021 STARTUP THE -0.2784
-0.3010 STATE </s> -0.3010
-0.3010 STATUS </s> -0.3010
-0.3010 STEREO </s> -0.3010
-0.3010 STEVE </s> -0.3010
-1.1461 STOP </s> -0.3010
-0.6690 STOP PLAYING 0.0000
-1.1461 STOP REPEAT -0.2663
-1.1461 STOP REPEATING 0.0000
-1.1461 STOP THE -0.2784
-0.3010 STORE </s> -0.3010
-0.3010 STREET </s> -0.3010
-0.3010 SUBTRACT </s> -0.3010
-0.3010 SUNDAY </s> -0.3010
-0.3010 SUNNY </s> -0.3010
-0.3010 SURE </s> -0.3010
-0.3010 SWITCH </s> -0.3010
-0.3010 SYSTEM </s> -0.3010
-0.3010 TAG </s> -0.3010
-0.3010 TEMPERATURE </s> -0.3010
-1.0000 TEN </s> -0.3010
-0.6990 TEN SONGS 0.0000
-0.6990 TEN TRACKS 0.0000
-0.3010 TENTH </s> -0.3010
-0.6021 THANK </s> -0.3010
-0.6021 THANK YOU -0.1249
-0.3010 THANKS </s> -0.3010
-0.8239 THAT </s> -0.3010
-1.3010 THAT PLAYLIST 0.0000
-0.8239 THAT SONG -0.0726
-0.8239 THAT TRACK -0.0653
-1.1176 THE </s> -0.3010
-1.7709 THE ARTIST -0.2041
-1.2937 THE EMM -0.0512
-1.4698 THE FIRST -0.0872
-1.4698 THE LAST -0.0872
-1.2937 THE NAME -0.0580
-1.4698 THE NEXT -0.0512
-1.5948 THE NUMBER 0.0000
-2.0719 THE PLAYLIST 0.0000
-1.4698 THE PREVIOUS -0.0512
-1.7709 THE RADIO 0.0000
-1.4698 THE SONG -0.0808
-1.7709 THE STEREO 0.0000
-1.4698 THE TRACK -0.0753
-1.4698 THE VOLUME -0.1091
-0.3010 THEM </s> -0.3010
-0.3010 THEN </s> -0.3010
-0.3010 THERE </s> -0.3010
-0.3010 THESE </s> -0.3010
-0.3010 THEY </s> -0.3010
-0.3010 THING </s> -0.3010
-0.3010 THIRD </s> -0.3010
-0.3010 THIRTEEN </s> -0.3010
-0.3010 THIRTY </s> -0.3010
-0.8873 THIS </s> -0.3010
-1.4314 THIS PLAYLIST 0.0000
-0.7782 THIS SONG -0.0726
-0.7782 THIS TRACK -0.0653
-0.3010 THOUSAND </s> -0.3010
-0.9031 THREE </s> -0.3010
-0.4260 THREE PLAYER 0.0000
-0.3010 THURSDAY </s> -0.3010
-0.3010 TIME </s> -0.3010
-1.1027 TO </s> -0.3010
-1.5798 TO FIRST -0.1919
-1.5798 TO LAST -0.1919
-1.5798 TO ME 0.0000
-1.5798 TO NEXT -0.1761
-1.5798 TO PREVIOUS -0.1761
-1.5798 TO SONG -0.2961
-0.6255 TO THE -0.1976
-1.5798 TO TRACK -0.2951
-0.3010 TODAY </s> -0.3010
-0.3010 TOMORROW </s> -0.3010
-0.4068 TRACK </s> -0.3010
-1.5682 TRACK AGAIN 0.0000
-1.5682 TRACK AM -0.0792
-1.8692 TRACK ARTIST -0.1461
-1.5682 TRACK IS -0.2596
-1.8692 TRACK NUMBER -0.1249
-0.3010 TRACKS </s> -0.3010
-0.3010 TRAFFIC </s> -0.3010
-0.3010 TREBLE </s> -0.3010
-0.3010 TRIP </s> -0.3010
-0.3010 TRUNK </s> -0.3010
-0.3010 TRY </s> -0.3010
-0.3010 TUESDAY </s> -0.3010
-1.2553 TURN </s> -0.3010
-0.6532 TURN OFF 0.0000
-0.6532 TURN ON 0.0000
-0.3010 TWELVE </s> -0.3010
-0.3010 TWENTY </s> -0.3010
-0.3010 TWO </s> -0.3010
-0.3010 UNAVAILABLE </s> -0.3010
-0.3010 UNIT </s> -0.3010
-0.3010 UNLOAD </s> -0.3010
-0.3010 UNMUTE </s> -0.3010
-0.6021 UP </s> -0.3010
-0.6021 UP THE -0.2503
-0.3010 USER </s> -0.3010
-0.3010 VERIFY </s> -0.3010
-0.3010 VERY </s> -0.3010
-0.3010 VIEW </s> -0.3010
-0.3010 VOICE </s> -0.3010
-0.3010 VOLTAGE </s> -0.3010
-0.4472 VOLUME </s> -0.3010
-1.1461 VOLUME DOWN -0.1761
-1.1461 VOLUME UP -0.1761
-0.3010 WAS </s> -0.3010
-0.3010 WE </s> -0.3010
-0.3010 WEATHER </s> -0.3010
-0.3010 WEDNESDAY </s> -0.3010
-0.3010 WEEK </s> -0.3010
-0.3010 WEEKDAY </s> -0.3010
-0.3010 WEEKEND </s> -0.3010
-0.3010 WELL </s> -0.3010
-0.3010 WERE </s> -0.3010
-0.3010 WEST </s> -0.3010
-1.5315 WHAT </s> -0.3010
-0.5315 WHAT IS -0.1047
-1.0544 WHAT SONG -0.0555
-1.0544 WHAT TRACK -0.0446
-0.3010 WHEEL </s> -0.3010
-0.3010 WHEN </s> -0.3010
-0.3010 WHERE </s> -0.3010
-1.1461 WHICH </s> -0.3010
-0.6690 WHICH SONG -0.0555
-0.6690 WHICH TRACK -0.0446
-0.3010 WHILE </s> -0.3010
-1.3802 WHO </s> -0.3010
-0.5351 WHO IS -0.1047
-0.7782 WHO PLAYED 0.0000
-0.3010 WHY </s> -0.3010
-0.3010 WINDOW </s> -0.3010
-0.3010 WITH </s> -0.3010
-0.3010 WORK </s> -0.3010
-0.3010 WOULD </s> -0.3010
-0.3010 YAH </s> -0.3010
-0.3010 YARD </s> -0.3010
-0.3010 YEAH </s> -0.3010
-0.3010 YEAR </s> -0.3010
-0.3010 YES </s> -0.3010
-0.3010 YESTERDAY </s> -0.3010
-0.4771 YOU </s> -0.3010
-0.7782 YOU LISTENING 0.0000
-0.3010 ZERO </s> -0.3010

\3-grams:
-0.3010 <s> A </s>
-0.3010 <s> ACTIVATE </s>
-0.3010 <s> ADD </s>
-0.3010 <s> AFFIRMATIVE </s>
-0.3010 <s> AFTER </s>
-0.3010 <s> AFTERNOON </s>
-0.3010 <s> AGAIN </s>
-0.3010 <s> AIR CONDITIONER
-0.3010 <s> ALBUM </s>
-0.3010 <s> ALL </s>
-0.3010 <s> AM </s>
-0.3010 <s> AMOUNT </s>
-0.3010 <s> AN </s>
-0.3010 <s> AND </s>
-0.3010 <s> ANNE </s>
-0.3010 <s> ANSWER </s>
-0.3010 <s> APPLICATION </s>
-0.3010 <s> APRIL </s>
-0.7782 <s> ARE </s>
-0.7782 <s> ARE PEE
-0.7782 <s> ARE YOU
-0.3010 <s> ARTIST </s>
-0.3010 <s> AS </s>
-0.3010 <s> AT </s>
-0.3010 <s> AUGUST </s>
-0.3010 <s> AUTHENTICATE </s>
-0.3010 <s> AVAILABLE </s>
-0.3010 <s> AVENUE </s>
-0.3010 <s> BACK </s>
-0.3010 <s> BAD </s>
-0.3010 <s> BASS </s>
-0.3010 <s> BATTERY </s>
-0.3010 <s> BE </s>
-0.3010 <s> BEFORE </s>
-0.3010 <s> BELMONT </s>
-0.3010 <s> BELVEDERE </s>
-0.3010 <s> BERKELEY </s>
-0.3010 <s> BILLION </s>
-0.3010 <s> BOULEVARD </s>
-0.3010 <s> BRIGHT </s>
-0.3010 <s> BRIGHTNESS </s>
-0.3010 <s> BUT </s>
-0.3010 <s> BUTTON </s>
-0.3010 <s> BY </s>
-0.3010 <s> CABIN </s>
-0.3010 <s> CAMERA </s>
-0.3010 <s> CAN </s>
-0.3010 <s> CAR </s>
-0.3010 <s> CENTIMETER </s>
-0.3010 <s> CENTURY </s>
-0.3010 <s> CHANGE </s>
-0.3010 <s> CHANNEL </s>
-0.3010 <s> CHECK </s>
-0.3010 <s> CIRCLE </s>
-0.3010 <s> CLOUDY </s>
-0.3010 <s> COCKPIT </s>
-0.3010 <s> COMPUTER </s>
-0.3010 <s> CONNECT </s>
-0.3010 <s> CONNECTED </s>
-0.3010 <s> CONTAIN </s>
-0.3010 <s> COOL </s>
-0.3010 <s> CORTE MADERA
-0.3010 <s> CREATE </s>
-0.3010 <s> DAN </s>
-0.3010 <s> DARK </s>
-0.3010 <s> DARKEN </s>
-0.3010 <s> DARKNESS </s>
-0.3010 <s> DATA </s>
-0.3010 <s> DATE </s>
-0.3010 <s> DAVID </s>
-0.3010 <s> DAWN </s>
-0.3010 <s> DAY </s>
-0.3010 <s> DEACTIVATE </s>
-0.3010 <s> DECADE </s>
-0.3010 <s> DECEMBER </s>
-0.3010 <s> DECREASE </s>
-0.3010 <s> DELETE </s>
-0.3010 <s> DESTROY </s>
-0.3010 <s> DIAGNOSTIC MODE
-0.3010 <s> DID </s>
-0.3010 <s> DIM </s>
-0.3010 <s> DISCONNECT </s>
-0.3010 <s> DISCONNECTED </s>
-0.3010 <s> DISPLAY </s>
-0.3010 <s> DISTANCE </s>
-0.9031 <s> DO </s>
-0.4260 <s> DO NOT
-0.7782 <s> DOWN </s>
-0.4771 <s> DOWN THE
-0.3010 <s> DRIVER </s>
-0.3010 <s> DUSK </s>
-0.3010 <s> EACH </s>
-0.3010 <s> EARLIER </s>
-0.3010 <s> EAST </s>
-0.3010 <s> EIGHT </s>
-0.3010 <s> EIGHTEEN </s>
-0.3010 <s> EIGHTH </s>
-0.3010 <s> EIGHTY </s>
-0.3010 <s> ELEVEN </s>
-0.3010 <s> ELL CEE
-0.3010 <s> EMM PEE
-0.3010 <s> ENGINE </s>
-0.3010 <s> EQUALIZER </s>
-0.3010 <s> EVENING </s>
-0.3010 <s> EXPRESSWAY </s>
-0.3010 <s> EXTERIOR </s>
-0.3010 <s> FAIRFAX </s>
-0.3010 <s> FEBRUARY </s>
-0.3010 <s> FEW </s>
-0.3010 <s> FIELD </s>
-0.3010 <s> FIFTEEN </s>
-0.3010 <s> FIFTH </s>
-0.3010 <s> FIFTY </s>
-0.3010 <s> FIND </s>
-0.6021 <s> FIRST </s>
-0.9031 <s> FIRST SONG
-0.9031 <s> FIRST TRACK
-0.3010 <s> FIVE </s>
-0.3010 <s> FOG </s>
-0.3010 <s> FOOT </s>
-0.3010 <s> FOR </s>
-0.3010 <s> FORT POINT
-0.3010 <s> FORTNIGHT </s>
-0.3010 <s> FORTUNE </s>
-0.3010 <s> FORTY </s>
-0.3010 <s> FORWARD </s>
-0.3010 <s> FOSTER CITY
-0.3010 <s> FOUND </s>
-0.3010 <s> FOUR </s>
-0.3010 <s> FOURTEEN </s>
-0.3010 <s> FOURTH </s>
-0.3010 <s> FRIDAY </s>
-0.3010 <s> FROM </s>
-0.3010 <s> FUEL </s>
-0.3010 <s> GALLON </s>
-0.3010 <s> GAS </s>
-0.3010 <s> GIVE </s>
-1.6628 <s> GO </s>
-1.1856 <s> GO BACK
-1.1856 <s> GO FORWARD
-0.4586 <s> GO TO
-0.3010 <s> GOOD </s>
-0.3010 <s> GOODBYE </s>
-0.3010 <s> GREG </s>
-0.3010 <s> HALT </s>
-0.3010 <s> HAVE </s>
-0.3010 <s> HEADLIGHT </s>
-0.3010 <s> HEAR </s>
-0.3010 <s> HEATER </s>
-0.3010 <s> HELLO </s>
-0.3010 <s> HELP </s>
-0.3010 <s> HERE </s>
-0.3010 <s> HEY </s>
-0.3010 <s> HI </s>
-0.3010 <s> HIGH </s>
-0.3010 <s> HIGHWAY </s>
-0.3010 <s> HOME </s>
-0.3010 <s> HOOD </s>
-0.3010 <s> HOUR </s>
-0.3010 <s> HOW </s>
-0.3010 <s> HUNDRED </s>
-0.3010 <s> I </s>
-0.3010 <s> ICE </s>
-0.3010 <s> IDENTIFY </s>
-0.3010 <s> IF </s>
-0.3010 <s> IGNITION </s>
-0.3010 <s> IN </s>
-0.3010 <s> INCH </s>
-0.3010 <s> INCREASE </s>
-0.3010 <s> INSERT </s>
-0.3010 <s> INSIDE </s>
-0.3010 <s> INTERIOR </s>
-0.3010 <s> INTERSECTION </s>
-0.3010 <s> IS </s>
-0.3010 <s> IT </s>
-0.3010 <s> ITEM </s>
-0.3010 <s> JACK </s>
-0.3010 <s> JAM </s>
-0.3010 <s> JANUARY </s>
-0.3010 <s> JED </s>
-0.3010 <s> JOHN </s>
-0.3010 <s> JOKE </s>
-0.3010 <s> JULY </s>
-0.3010 <s> JUNE </s>
-0.3010 <s> JUST </s>
-0.3010 <s> KENT </s>
-0.3010 <s> KILOGRAM </s>
-0.3010 <s> KILOMETER </s>
-0.3010 <s> KNOW </s>
-0.3010 <s> LANE </s>
-0.3010 <s> LARKSPUR </s>
-0.6021 <s> LAST </s>
-0.9031 <s> LAST SONG
-0.9031 <s> LAST TRACK
-0.3010 <s> LATE </s>
-0.3010 <s> LATER </s>
-0.3010 <s> LEFT </s>
-0.3010 <s> LESS </s>
-0.3010 <s> LEVEL </s>
-0.3010 <s> LIGHT </s>
-0.3010 <s> LIGHTEN </s>
-0.3010 <s> LIGHTS </s>
-0.3010 <s> LIKE </s>
-0.3010 <s> LIST </s>
-0.3010 <s> LISTEN </s>
-0.3010 <s> LITER </s>
-0.3010 <s> LOAD </s>
-0.3010 <s> LOCATE </s>
-0.3010 <s> LOOP </s>
-0.3010 <s> LOUD </s>
-0.3010 <s> LOW </s>
-0.7782 <s> LOWER </s>
-0.4771 <s> LOWER THE
-0.3010 <s> LUCY </s>
-0.3010 <s> MANY </s>
-0.3010 <s> MARCH </s>
-0.3010 <s> MARIN COUNTY
-0.3010 <s> MARK </s>
-0.3010 <s> MATTHEW </s>
-0.3010 <s> MAY </s>
-0.3010 <s> ME </s>
-0.3010 <s> MEDIUM </s>
-0.3010 <s> MENU </s>
-0.3010 <s> METER </s>
-0.3010 <s> MICHAEL </s>
-0.3010 <s> MID </s>
-0.3010 <s> MILE </s>
-0.3010 <s> MILEAGE </s>
-0.3010 <s> MILLION </s>
-0.3010 <s> MINUTE </s>
-0.3010 <s> MIRROR </s>
-0.3010 <s> MODE </s>
-0.3010 <s> MODULE </s>
-0.3010 <s> MONDAY </s>
-0.3010 <s> MONTH </s>
-0.3010 <s> MORE </s>
-0.3010 <s> MORNING </s>
-0.3010 <s> MOUNTAIN VIEW
-0.3010 <s> MOVE </s>
-0.3010 <s> MUSIC </s>
-0.3010 <s> MUTE </s>
-0.3010 <s> NAH </s>
-0.3010 <s> NAME </s>
-0.3010 <s> NAVIGATE </s>
-0.3010 <s> NEGATIVE </s>
-0.3010 <s> NEW </s>
-0.3010 <s> NEWS </s>
-0.7782 <s> NEXT </s>
-0.7782 <s> NEXT SONG
-0.7782 <s> NEXT TRACK
-0.3010 <s> NIGHT </s>
-0.3010 <s> NINE </s>
-0.3010 <s> NINETEEN </s>
-0.3010 <s> NINETY </s>
-0.3010 <s> NINTH </s>
-0.3010 <s> NO </s>
-0.3010 <s> NOPE </s>
-0.3010 <s> NORTH </s>
-0.3010 <s> NOT </s>
-0.3010 <s> NOTE </s>
-0.3010 <s> NOVATO </s>
-0.3010 <s> NOVEMBER </s>
-0.3010 <s> NOW </s>
-0.3010 <s> NUMBER </s>
-0.3010 <s> O CLOCK
-0.3010 <s> OAKLAND </s>
-0.3010 <s> OCTOBER </s>
-0.3010 <s> OF </s>
-0.3010 <s> OFF </s>
-0.3010 <s> OKAY </s>
-0.3010 <s> OLD </s>
-0.3010 <s> ON </s>
-0.3010 <s> ONE </s>
-0.3010 <s> ONLY </s>
-0.3010 <s> OOPS </s>
-0.3010 <s> OPTION </s>
-0.3010 <s> OR </s>
-0.3010 <s> OUTSIDE </s>
-0.3010 <s> OVERCAST </s>
-0.3010 <s> PAGE </s>
-0.3010 <s> PALO ALTO
-0.3010 <s> PASSENGER </s>
-0.3010 <s> PASSWORD </s>
-0.3010 <s> PATRICK </s>
-0.3010 <s> PAUL </s>
-1.0000 <s> PAUSE </s>
-1.0000 <s> PAUSE SONG
-0.6990 <s> PAUSE THE
-1.0000 <s> PAUSE TRACK
-0.3010 <s> PERSON </s>
-0.3010 <s> PETALUMA </s>
-0.3010 <s> PETROL </s>
-0.3010 <s> PICTURE </s>
-0.3010 <s> PLACE </s>
-1.6232 <s> PLAY </s>
-1.3222 <s> PLAY A
-0.8451 <s> PLAY THAT
-0.6690 <s> PLAY THE
-1.1461 <s> PLAY THIS
-0.3010 <s> PLAYER </s>
-0.3010 <s> PLAYLIST </s>
-0.3010 <s> PLEASE </s>
-0.3010 <s> POSITIVE </s>
-0.3010 <s> POUND </s>
-0.3010 <s> POWER </s>
-0.3010 <s> PRESIDIO </s>
-0.7782 <s> PREVIOUS </s>
-0.7782 <s> PREVIOUS SONG
-0.7782 <s> PREVIOUS TRACK
-0.3010 <s> PROFILE </s>
-0.3010 <s> PROVIDE </s>
-0.3010 <s> QUIET </s>
-0.3010 <s> RADIO </s>
-0.3010 <s> RAINING </s>
-0.7782 <s> RAISE </s>
-0.4771 <s> RAISE THE
-0.6021 <s> RANDOM </s>
-0.6021 <s> RANDOM SONG
-0.3010 <s> RANGE </s>
-0.3010 <s> READ </s>
-0.3010 <s> REDUCE </s>
-0.3010 <s> REDWOOD CITY
-0.3010 <s> REMEMBER </s>
-0.3010 <s> REMOVE </s>
-1.3802 <s> REPEAT </s>
-0.9031 <s> REPEAT ALL
-0.7782 <s> REPEAT THE
-0.7782 <s> REPEAT THIS
-0.3010 <s> REPORT </s>
-0.3010 <s> RESOURCE </s>
-0.3010 <s> RETRIEVE </s>
-0.3010 <s> RIGHT </s>
-0.3010 <s> ROAD </s>
-0.3010 <s> ROBERT </s>
-0.3010 <s> ROSS </s>
-0.3010 <s> RUN </s>
-0.3010 <s> RUPERT </s>
-0.3010 <s> SAM </s>
-0.3010 <s> SAME </s>
-0.9031 <s> SAN ANSELMO
-0.9031 <s> SAN FRANCISCO
-0.9031 <s> SAN JOSE
-0.9031 <s> SAN RAFAEL
-0.3010 <s> SATURDAY </s>
-0.3010 <s> SAUSALITO </s>
-0.3010 <s> SAVE </s>
-0.3010 <s> SCREEN </s>
-0.3010 <s> SEARCH </s>
-0.3010 <s> SEAT </s>
-0.3010 <s> SECOND </s>
-0.3010 <s> SEE </s>
-0.3010 <s> SEPTEMBER </s>
-0.6021 <s> SEQUENTIAL </s>
-0.6021 <s> SEQUENTIAL SONG
-0.3010 <s> SERVICE </s>
-0.3010 <s> SET </s>
-0.3010 <s> SETTINGS </s>
-0.3010 <s> SEVEN </s>
-0.3010 <s> SEVENTEEN </s>
-0.3010 <s> SEVENTH </s>
-0.3010 <s> SEVENTY </s>
-0.3010 <s> SHARON </s>
-0.3010 <s> SHIFT </s>
-0.3010 <s> SHOW </s>
-0.6021 <s> SHUTDOWN </s>
-0.6021 <s> SHUTDOWN THE
-0.3010 <s> SILENCE </s>
-0.3010 <s> SIX </s>
-0.3010 <s> SIXTEEN </s>
-0.3010 <s> SIXTH </s>
-0.3010 <s> SIXTY </s>
-0.3010 <s> SLEEP </s>
-0.3010 <s> SLEET </s>
-0.3010 <s> SNOW </s>
-0.3010 <s> SO </s>
-0.3010 <s> SOME </s>
-0.3010 <s> SONG </s>
-0.3010 <s> SONGS </s>
-0.3010 <s> SOUND </s>
-0.3010 <s> SOUTH </s>
-0.3010 <s> SPEAK </s>
-0.3010 <s> SPEED </s>
-0.3010 <s> STANFORD </s>
-0.6021 <s> START </s>
-0.6021 <s> START THE
-0.6021 <s> STARTUP </s>
-0.6021 <s> STARTUP THE
-0.3010 <s> STATE </s>
-0.3010 <s> STATUS </s>
-0.3010 <s> STEREO </s>
-0.3010 <s> STEVE </s>
-1.1461 <s> STOP </s>
-0.6690 <s> STOP PLAYING
-1.1461 <s> STOP REPEAT
-1.1461 <s> STOP REPEATING
-1.1461 <s> STOP THE
-0.3010 <s> STORE </s>
-0.3010 <s> STREET </s>
-0.3010 <s> SUBTRACT </s>
-0.3010 <s> SUNDAY </s>
-0.3010 <s> SUNNY </s>
-0.3010 <s> SURE </s>
-0.3010 <s> SWITCH </s>
-0.3010 <s> SYSTEM </s>
-0.3010 <s> TAG </s>
-0.3010 <s> TEMPERATURE </s>
-0.3010 <s> TEN </s>
-0.3010 <s> TENTH </s>
-0.6021 <s> THANK </s>
-0.6021 <s> THANK YOU
-0.3010 <s> THANKS </s>
-0.3010 <s> THAT </s>
-0.3010 <s> THE </s>
-0.3010 <s> THEM </s>
-0.3010 <s> THEN </s>
-0.3010 <s> THERE </s>
-0.3010 <s> THESE </s>
-0.3010 <s> THEY </s>
-0.3010 <s> THING </s>
-0.3010 <s> THIRD </s>
-0.3010 <s> THIRTEEN </s>
-0.3010 <s> THIRTY </s>
-0.3010 <s> THIS </s>
-0.3010 <s> THOUSAND </s>
-0.3010 <s> THREE </s>
-0.3010 <s> THURSDAY </s>
-0.3010 <s> TIME </s>
-0.3010 <s> TO </s>
-0.3010 <s> TODAY </s>
-0.3010 <s> TOMORROW </s>
-0.3010 <s> TRACK </s>
-0.3010 <s> TRACKS </s>
-0.3010 <s> TRAFFIC </s>
-0.3010 <s> TREBLE </s>
-0.3010 <s> TRIP </s>
-0.3010 <s> TRUNK </s>
-0.3010 <s> TRY </s>
-0.3010 <s> TUESDAY </s>
-1.2553 <s> TURN </s>
-0.6532 <s> TURN OFF
-0.6532 <s> TURN ON
-0.3010 <s> TWELVE </s>
-0.3010 <s> TWENTY </s>
-0.3010 <s> TWO </s>
-0.3010 <s> UNAVAILABLE </s>
-0.3010 <s> UNIT </s>
-0.3010 <s> UNLOAD </s>
-0.3010 <s> UNMUTE </s>
-0.7782 <s> UP </s>
-0.4771 <s> UP THE
-0.3010 <s> USER </s>
-0.3010 <s> VERIFY </s>
-0.3010 <s> VERY </s>
-0.3010 <s> VOICE </s>
-0.3010 <s> VOLTAGE </s>
-0.7782 <s> VOLUME </s>
-0.7782 <s> VOLUME DOWN
-0.7782 <s> VOLUME UP
-0.3010 <s> WAS </s>
-0.3010 <s> WE </s>
-0.3010 <s> WEATHER </s>
-0.3010 <s> WEDNESDAY </s>
-0.3010 <s> WEEK </s>
-0.3010 <s> WEEKDAY </s>
-0.3010 <s> WEEKEND </s>
-0.3010 <s> WELL </s>
-0.3010 <s> WERE </s>
-0.3010 <s> WEST </s>
-1.5315 <s> WHAT </s>
-0.5315 <s> WHAT IS
-1.0544 <s> WHAT SONG
-1.0544 <s> WHAT TRACK
-0.3010 <s> WHEEL </s>
-0.3010 <s> WHEN </s>
-0.3010 <s> WHERE </s>
-1.1461 <s> WHICH </s>
-0.6690 <s> WHICH SONG
-0.6690 <s> WHICH TRACK
-0.3010 <s> WHILE </s>
-1.3802 <s> WHO </s>
-0.5351 <s> WHO IS
-0.7782 <s> WHO PLAYED
-0.3010 <s> WHY </s>
-0.3010 <s> WINDOW </s>
-0.3010 <s> WITH </s>
-0.3010 <s> WORK </s>
-0.3010 <s> WOULD </s>
-0.3010 <s> YAH </s>
-0.3010 <s> YARD </s>
-0.3010 <s> YEAH </s>
-0.3010 <s> YEAR </s>
-0.3010 <s> YES </s>
-0.3010 <s> YESTERDAY </s>
-0.3010 <s> YOU </s>
-0.3010 <s> ZERO </s>
-0.3010 A RANDOM SONG
-0.3010 AIR CONDITIONER </s>
-0.3010 ALL SONGS </s>
-0.3010 ALL TRACKS </s>
-0.3010 AM I ON
-0.3010 ARE PEE EMM
-0.3010 ARE YOU LISTENING
-0.3010 ARTIST OF THIS
-0.6021 BACK TEN SONGS
-0.6021 BACK TEN TRACKS
-0.3010 CEE DEE </s>
-0.3010 CORTE MADERA </s>
-0.3010 DIAGNOSTIC MODE </s>
-0.3010 DO NOT PLAY
-0.6021 DOWN THE </s>
-0.6021 DOWN THE VOLUME
-0.3010 ELL CEE DEE
-0.3010 EMM PEE THREE
-0.3010 FIRST SONG </s>
-0.3010 FIRST TRACK </s>
-0.3010 FORT POINT </s>
-0.6021 FORWARD TEN SONGS
-0.6021 FORWARD TEN TRACKS
-0.3010 FOSTER CITY </s>
-0.7782 GO BACK </s>
-0.4771 GO BACK TEN
-0.7782 GO FORWARD </s>
-0.4771 GO FORWARD TEN
-1.5051 GO TO </s>
-1.5051 GO TO FIRST
-1.5051 GO TO LAST
-1.5051 GO TO NEXT
-1.5051 GO TO PREVIOUS
-1.5051 GO TO SONG
-0.5509 GO TO THE
-1.5051 GO TO TRACK
-0.3010 I ON </s>
-0.3010 IS PLAYING THIS
-1.4472 IS THE </s>
-1.1461 IS THE ARTIST
-0.6690 IS THE NAME
-0.9700 IS THE NUMBER
-1.4472 IS THE SONG
-1.4472 IS THE TRACK
-0.3010 IS THIS </s>
-0.3010 LAST SONG </s>
-0.3010 LAST TRACK </s>
-0.3010 LISTENING TO ME
-0.6021 LOWER THE </s>
-0.6021 LOWER THE VOLUME
-0.3010 MARIN COUNTY </s>
-0.3010 MOUNTAIN VIEW </s>
-0.6021 NAME OF THAT
-0.6021 NAME OF THIS
-0.3010 NEXT SONG </s>
-0.3010 NEXT TRACK </s>
-0.7782 NOT PLAY </s>
-0.4771 NOT PLAY THIS
-0.3010 NUMBER OF THIS
-0.3010 O CLOCK </s>
-0.7782 OF THAT PLAYLIST
-0.7782 OF THAT SONG
-0.7782 OF THAT TRACK
-1.1461 OF THIS PLAYLIST
-0.6690 OF THIS SONG
-0.6690 OF THIS TRACK
-0.7782 OFF THE EMM
-0.7782 OFF THE RADIO
-0.7782 OFF THE STEREO
-0.7782 ON THE EMM
-0.7782 ON THE RADIO
-0.7782 ON THE STEREO
-0.3010 PALO ALTO </s>
-0.3010 PAUSE SONG </s>
-0.6021 PAUSE THE SONG
-0.6021 PAUSE THE TRACK
-0.3010 PAUSE TRACK </s>
-0.3010 PEE EMM </s>
-1.1461 PEE THREE </s>
-0.3680 PEE THREE PLAYER
-0.6021 PLAY A </s>
-0.6021 PLAY A RANDOM
-0.7782 PLAY THAT </s>
-0.7782 PLAY THAT SONG
-0.7782 PLAY THAT TRACK
-1.2553 PLAY THE </s>
-0.9542 PLAY THE FIRST
-0.9542 PLAY THE LAST
-0.9542 PLAY THE NEXT
-0.9542 PLAY THE PREVIOUS
-1.0000 PLAY THIS </s>
-0.6990 PLAY THIS SONG
-0.6990 PLAY THIS TRACK
-0.6021 PLAYED THE SONG
-0.6021 PLAYED THE TRACK
-0.6021 PLAYED THIS SONG
-0.6021 PLAYED THIS TRACK
-0.6021 PLAYING THIS SONG
-0.6021 PLAYING THIS TRACK
-0.3010 PREVIOUS SONG </s>
-0.3010 PREVIOUS TRACK </s>
-0.6021 RAISE THE </s>
-0.6021 RAISE THE VOLUME
-0.6021 RANDOM SONG </s>
-0.6021 RANDOM SONG MODE
-0.3010 REDWOOD CITY </s>
-0.7782 REPEAT ALL </s>
-0.7782 REPEAT ALL SONGS
-0.7782 REPEAT ALL TRACKS
-0.9031 REPEAT THE </s>
-0.9031 REPEAT THE PLAYLIST
-0.9031 REPEAT THE SONG
-0.9031 REPEAT THE TRACK
-0.9031 REPEAT THIS </s>
-0.9031 REPEAT THIS PLAYLIST
-0.9031 REPEAT THIS SONG
-0.9031 REPEAT THIS TRACK
-0.3010 SAN ANSELMO </s>
-0.3010 SAN FRANCISCO </s>
-0.3010 SAN JOSE </s>
-0.3010 SAN RAFAEL </s>
-0.3010 SEQUENTIAL SONG MODE
-0.3010 SHUTDOWN THE EMM
-0.3010 SONG AGAIN </s>
-0.3010 SONG AM I
-0.3010 SONG ARTIST </s>
-0.3010 SONG IS THIS
-0.3010 SONG MODE </s>
-0.3010 SONG NUMBER </s>
-0.3010 START THE EMM
-0.3010 STARTUP THE EMM
-0.7782 STOP PLAYING </s>
-0.4771 STOP PLAYING THIS
-0.3010 STOP REPEAT </s>
-0.3010 STOP REPEATING </s>
-0.3010 STOP THE EMM
-0.3010 TEN SONGS </s>
-0.3010 TEN TRACKS </s>
-0.3010 THANK YOU </s>
-0.3010 THAT PLAYLIST </s>
-0.4771 THAT SONG </s>
-0.7782 THAT SONG AGAIN
-0.4771 THAT TRACK </s>
-0.7782 THAT TRACK AGAIN
-0.3010 THE ARTIST OF
-0.3010 THE EMM PEE
-0.6021 THE FIRST SONG
-0.6021 THE FIRST TRACK
-0.6021 THE LAST SONG
-0.6021 THE LAST TRACK
-0.3010 THE NAME OF
-0.6021 THE NEXT SONG
-0.6021 THE NEXT TRACK
-0.7782 THE NUMBER </s>
-0.4771 THE NUMBER OF
-0.3010 THE PLAYLIST </s>
-0.6021 THE PREVIOUS SONG
-0.6021 THE PREVIOUS TRACK
-0.3010 THE RADIO </s>
-0.4260 THE SONG </s>
-0.9031 THE SONG ARTIST
-0.3010 THE STEREO </s>
-0.4260 THE TRACK </s>
-0.9031 THE TRACK ARTIST
-0.3010 THE VOLUME </s>
-0.3010 THIS PLAYLIST </s>
-0.3522 THIS SONG </s>
-1.2553 THIS SONG AGAIN
-0.3522 THIS TRACK </s>
-1.2553 THIS TRACK AGAIN
-0.3010 THREE PLAYER </s>
-0.3010 TO FIRST SONG
-0.3010 TO LAST SONG
-0.3010 TO ME </s>
-0.3010 TO NEXT SONG
-0.3010 TO PREVIOUS SONG
-0.3010 TO SONG NUMBER
-1.2553 TO THE </s>
-0.9542 TO THE FIRST
-0.9542 TO THE LAST
-0.9542 TO THE NEXT
-0.9542 TO THE PREVIOUS
-0.3010 TO TRACK NUMBER
-0.3010 TRACK AGAIN </s>
-0.3010 TRACK AM I
-0.3010 TRACK ARTIST </s>
-0.3010 TRACK IS THIS
-0.3010 TRACK NUMBER </s>
-0.9031 TURN OFF </s>
-0.4260 TURN OFF THE
-0.9031 TURN ON </s>
-0.4260 TURN ON THE
-0.6021 UP THE </s>
-0.6021 UP THE VOLUME
-0.3010 VOLUME DOWN </s>
-0.3010 VOLUME UP </s>
-1.3010 WHAT IS </s>
-0.3468 WHAT IS THE
-0.7782 WHAT SONG </s>
-0.7782 WHAT SONG AM
-0.7782 WHAT SONG IS
-0.7782 WHAT TRACK </s>
-0.7782 WHAT TRACK AM
-0.7782 WHAT TRACK IS
-0.7782 WHICH SONG </s>
-0.7782 WHICH SONG AM
-0.7782 WHICH SONG IS
-0.7782 WHICH TRACK </s>
-0.7782 WHICH TRACK AM
-0.7782 WHICH TRACK IS
-0.8451 WHO IS PLAYING
-0.4472 WHO IS THE
-0.6021 WHO PLAYED THE
-0.6021 WHO PLAYED THIS
-0.3010 YOU LISTENING TO

\end\
